<?xml version="1.0"?>
<opencv_storage>
<stage13>
  <maxWeakCount>7</maxWeakCount>
  <stageThreshold>-9.7014939785003662e-01</stageThreshold>
  <weakClassifiers>
    <_>
      <internalNodes>
        0 -1 120489 -2.3077236488461494e-02</internalNodes>
      <leafValues>
        7.4358975887298584e-01 -4.2857143282890320e-01</leafValues></_>
    <_>
      <internalNodes>
        0 -1 67699 -8.4126973524689674e-03</internalNodes>
      <leafValues>
        7.8192967176437378e-01 -4.2598864436149597e-01</leafValues></_>
    <_>
      <internalNodes>
        0 -1 99031 -6.0138698667287827e-02</internalNodes>
      <leafValues>
        5.7946175336837769e-01 -4.9742111563682556e-01</leafValues></_>
    <_>
      <internalNodes>
        0 -1 973 -1.2253381311893463e-01</internalNodes>
      <leafValues>
        6.0779583454132080e-01 -3.9794042706489563e-01</leafValues></_>
    <_>
      <internalNodes>
        0 -1 8765 -5.4899774491786957e-02</internalNodes>
      <leafValues>
        8.2912397384643555e-01 -5.4831355810165405e-01</leafValues></_>
    <_>
      <internalNodes>
        0 -1 18473 -4.3134558945894241e-02</internalNodes>
      <leafValues>
        -7.6894581317901611e-01 4.3742799758911133e-01</leafValues></_>
    <_>
      <internalNodes>
        0 -1 114852 6.6395262256264687e-03</internalNodes>
      <leafValues>
        -4.8677980899810791e-01 5.7997053861618042e-01</leafValues></_></weakClassifiers></stage13>
</opencv_storage>
