<?xml version="1.0"?>
<opencv_storage>
<stage16>
  <maxWeakCount>5</maxWeakCount>
  <stageThreshold>-3.8864639401435852e-01</stageThreshold>
  <weakClassifiers>
    <_>
      <internalNodes>
        0 -1 152693 7.3628528043627739e-03</internalNodes>
      <leafValues>
        -3.2800000905990601e-01 8.0571430921554565e-01</leafValues></_>
    <_>
      <internalNodes>
        0 -1 57383 3.4502451308071613e-04</internalNodes>
      <leafValues>
        -7.6931959390640259e-01 4.6132978796958923e-01</leafValues></_>
    <_>
      <internalNodes>
        0 -1 22298 3.3372994948877022e-05</internalNodes>
      <leafValues>
        -4.9773335456848145e-01 6.3977169990539551e-01</leafValues></_>
    <_>
      <internalNodes>
        0 -1 22647 -9.8862834274768829e-02</internalNodes>
      <leafValues>
        6.0661554336547852e-01 -5.1739710569381714e-01</leafValues></_>
    <_>
      <internalNodes>
        0 -1 158886 -2.6116368826478720e-04</internalNodes>
      <leafValues>
        5.8629858493804932e-01 -4.7273731231689453e-01</leafValues></_></weakClassifiers></stage16>
</opencv_storage>
